{
    "layerSizes": [
        784,
        64,
        64,
        4
    ],
    "layers": [
        {
            "_numNodeIn": 784,
            "_numNodeOut": 64,
            "ActivationIndex": 3,
            "weights": {
                "_height": 64,
                "_width": 784,
                "_values": [
                    -0.00820555892581578,
                    0.010132980365770716,
                    0.0021876010776188746,
                    0.006122985987285268,
                    0.0002141148826377873,
                    0.021411666951412755,
                    0.00843483928332023,
                    0.0023427028153472494,
                    0.007718533784396589,
                    0.0005762566202699136,
                    0.013201983301642384,
                    -0.0012432188598006987,
                    0.007941797068612396,
                    -0.007984348252793546,
                    -0.0006071549269447651,
                    -0.0017642732193041006,
                    0.0034158546774025494,
                    0.023143771295801517,
                    -0.011279087129450477,
                    -0.01529733929306342,
                    -0.005324528113606523,
                    -0.0042316966638420339,
                    0.0011278772776235564,
                    0.003423603443964985,
                    0.005519040406640449,
                    0.006913141171638208,
                    0.0005688648388537503,
                    -0.010035853671223286,
                    0.009756371102537819,
                    -0.00451363432186907,
                    0.007983558696977396,
                    0.007140968216299209,
                    0.0029722352247884985,
                    0.019462735142184489,
                    0.013796830338760854,
                    -0.007355658378848106,
                    0.012365389003252054,
                    -0.0010200222589018575,
                    0.016673686264634569,
                    -0.004931719578545333,
                    -0.01993367848113691,
                    0.003356516765229069,
                    -0.00613268129593369,
                    0.00684582049718801,
                    -0.00005230060968581313,
                    -0.008625250438978284,
                    -0.016170759991201875,
                    0.0239895760220719,
                    -0.009947892510637149,
                    0.002764862000699978,
                    0.020679607949677188,
                    0.0133299326228388,
                    0.0011902417875324834,
                    0.0059232293030956179,
                    0.013751597517328521,
                    -0.01721080749938044,
                    -0.008247983014758674,
                    0.009752343086188999,
                    0.006727229759192309,
                    -0.009482422944463148,
                    0.021962147216991039,
                    0.03922321339962016,
                    0.005809267055359789,
                    0.01664009448775664,
                    -0.007811386587683242,
                    -0.00008416861131676751,
                    -0.01560156886912902,
                    0.007219489003184495,
                    0.011669331028556586,
                    0.00547187387994536,
                    0.010391783633393137,
                    0.015353301381590749,
                    0.00533507235620931,
                    -0.014451326088785679,
                    0.007026149098332502,
                    0.014268057837162566,
                    -0.0004725476458781417,
                    -0.0006267837608645933,
                    -0.017390141864714396,
                    -0.0072124475263471358,
                    -0.005067992190468572,
                    -0.02564689522690238,
                    -0.007893654802436257,
                    -0.010830299726374948,
                    -0.01873892129838137,
                    0.010637712528970483,
                    -0.003623289617498095,
                    0.021214450761705859,
                    0.0020870149512781618,
                    0.008178302887003022,
                    0.0028098199100956486,
                    0.03114964062027638,
                    -0.012434880506158663,
                    0.003091267176368469,
                    -0.016992454593887455,
                    0.014204578674006329,
                    0.0040207096623058979,
                    0.012399943370923459,
                    -0.014486544569139754,
                    0.013918746881825905,
                    -0.009316934485672793,
                    -0.008869898820755043,
                    0.01455464016189942,
                    0.022030942772429474,
                    0.025525571529451304,
                    0.00983374682883196,
                    -0.0012184165145968124,
                    0.0025406302241997205,
                    0.0139122762954684,
                    -0.005315280950846533,
                    -0.022881139894342894,
                    -0.0024876518245563865,
                    0.008061258864359803,
                    -0.0012729435337839742,
                    0.01454598666962581,
                    -0.0008242125838045307,
                    -0.008831721230496526,
                    0.011573717326149105,
                    0.01078003500039345,
                    0.022082602684188738,
                    -0.015980616246041837,
                    -0.014341477624671417,
                    -0.000834314922512613,
                    -0.007460283920642471,
                    -0.003471342499206251,
                    -0.005803103028880732,
                    -0.01068604137098409,
                    0.0023615257348960385,
                    0.0034912641288268278,
                    -0.0072186578249032258,
                    0.0004283740962214604,
                    0.022705860563581816,
                    0.01934073119678646,
                    0.0011892695426047903,
                    0.009552036283166707,
                    0.0011435617228934047,
                    0.005505209415211244,
                    -0.020340208558602,
                    0.00042944521413400575,
                    -0.01170779118319818,
                    0.005230606516396348,
                    0.016936359998628096,
                    0.011977525086094605,
                    0.023558669915404914,
                    0.025657865119954768,
                    0.010199812045945892,
                    0.028608008762909394,
                    0.009877760584294644,
                    -0.0030837840047477787,
                    -0.009754902216491359,
                    -0.03168476132486958,
                    -0.02304292785139565,
                    -0.00997649208619805,
                    -0.014121535682754917,
                    -0.0235605308782266,
                    -0.021421726276365559,
                    -0.002525586599630809,
                    -0.007143316127640792,
                    0.0053767776388355188,
                    0.024890936401570187,
                    0.025848754372819226,
                    -0.0010730465296655858,
                    -0.00835764295179732,
                    -0.0040700579159611998,
                    -0.014435091271875004,
                    0.009053928117761142,
                    -0.0013406747534082645,
                    -0.028317181806296417,
                    0.005002079145811489,
                    0.021139196266770908,
                    0.025953129933649276,
                    0.03223170141105904,
                    0.019228849197067967,
                    0.027026799155281297,
                    0.050976952112838379,
                    0.000639154349939921,
                    -0.009553436054887059,
                    0.0024117853587567346,
                    -0.04298060424726084,
                    -0.02681466606947,
                    -0.035822824270316949,
                    -0.013811151951605414,
                    -0.021054933735012727,
                    0.007164555132082053,
                    0.004245311244668766,
                    0.01429098251559569,
                    -0.018244474741395259,
                    0.002275343137138721,
                    0.01002770135070796,
                    0.004809047475238067,
                    0.015217251889215075,
                    0.004809568570406552,
                    0.026491139729480977,
                    -0.010154603588529694,
                    -0.0013875673047539027,
                    0.012456010984946057,
                    -0.004824791460595265,
                    -0.0015233427059344106,
                    0.008293723191987679,
                    0.039154257279706849,
                    0.03604886554218141,
                    0.04478941072874895,
                    0.027903697745072423,
                    0.005609436914626643,
                    0.028536340894499438,
                    -0.0024820431013476789,
                    -0.004258696733709704,
                    -0.024499978999367214,
                    -0.04115741197105033,
                    -0.031104828976635889,
                    -0.01721274061847557,
                    0.009173896107351519,
                    0.005433555989688188,
                    0.0021872172869008648,
                    -0.027924737435073216,
                    0.0017534019850441838,
                    0.014084491852134255,
                    0.031069156959539068,
                    0.0071130137907629439,
                    0.011078636821903198,
                    0.014368916159540228,
                    0.02613737250941109,
                    -0.004886927270074831,
                    0.0018082038511112796,
                    0.009460764182095494,
                    -0.0014468576776641065,
                    0.031116073138977609,
                    0.018041438290681244,
                    0.04605846105670689,
                    0.03786718576673048,
                    0.0008622333258731587,
                    0.02198529593067696,
                    0.017171268774526947,
                    -0.0012886751974625808,
                    0.008475227158771514,
                    -0.010032398837151633,
                    -0.03633413355613182,
                    -0.028225988582012568,
                    -0.016275476170251058,
                    -0.005564946740085663,
                    0.021753924846965875,
                    0.01039474846873777,
                    0.014481803160461184,
                    0.031251064543312518,
                    0.021200389694375593,
                    0.01355348765223309,
                    -0.0031645289647518539,
                    -0.016276496239861637,
                    0.0049053746668526018,
                    0.0034408318198006855,
                    -0.032167902279994418,
                    -0.005803629938608296,
                    -0.003261295056533231,
                    -0.009086678285059708,
                    -0.0007168113608075708,
                    0.037502693750252228,
                    0.04162120924768927,
                    0.022609536503891919,
                    0.023887636560568524,
                    -0.00649784795133547,
                    0.004074314050239855,
                    0.01842271447016965,
                    0.0004688367065293334,
                    -0.01677668994587027,
                    -0.04967396051313345,
                    -0.015843229353713706,
                    -0.019878030345556003,
                    -0.030159040003205196,
                    0.005052554407992961,
                    -0.02801920797520066,
                    -0.013860965167950343,
                    0.0018158984721046092,
                    -0.004449816727033487,
                    -0.0016185074935506795,
                    -0.00889080138042093,
                    0.001946394207818044,
                    -0.020171426332846754,
                    -0.0006457290554883199,
                    -0.019455543378412607,
                    -0.01010911751712141,
                    -0.0062586730578696619,
                    -0.008531579478625385,
                    0.0038154673188766977,
                    0.018061590437652949,
                    0.005372351193607129,
                    0.027342122728891074,
                    0.029559304922550015,
                    0.038435544363782738,
                    0.01368374082565181,
                    0.027645989284501798,
                    0.02375047106274405,
                    -0.02918108634518325,
                    -0.054755717194044237,
                    -0.07582202962562537,
                    -0.03034311171079451,
                    -0.026219293900650445,
                    -0.03263960813624247,
                    -0.002400684910218732,
                    0.013661271248655309,
                    0.008769466010186458,
                    -0.0035168790357567385,
                    0.01983563144669009,
                    0.0037705990439527794,
                    -0.007760398003353306,
                    -0.025796408352620934,
                    0.00585794870039791,
                    0.002712471468510135,
                    -0.013209660472499196,
                    -0.002739630507271057,
                    -0.006741597796009245,
                    -0.004396859910163333,
                    0.039241763579111108,
                    0.010054392579604098,
                    0.038146772673151908,
                    -0.002283491580037682,
                    0.016375197267770818,
                    0.016045583426318415,
                    0.01945342982677769,
                    0.031567571004040988,
                    -0.008527157021083443,
                    -0.05582469072195711,
                    -0.034627555327299757,
                    -0.05167835436630581,
                    -0.03947308150755444,
                    -0.005132102888127344,
                    0.015027262560676625,
                    -0.019964234576382919,
                    0.019599424804398498,
                    0.007337534317641563,
                    0.026001896332359638,
                    0.02297439295911789,
                    0.01476509160300149,
                    0.0006556619687545446,
                    -0.01388633061295876,
                    -0.002549378726777733,
                    -0.02192808831712105,
                    -0.0040770278387841228,
                    -0.008679429782952747,
                    0.03145536419478614,
                    0.05221312583012627,
                    0.028209543191665647,
                    0.004645679026406152,
                    0.03375587992808445,
                    0.02875369435099181,
                    0.042049277359306799,
                    0.051329684476825118,
                    0.024021363125364117,
                    -0.0192238877245992,
                    -0.03883269214450459,
                    -0.06320485573454879,
                    -0.04200222305548047,
                    -0.06606522866778465,
                    -0.03738239490316342,
                    -0.0022169847713764086,
                    -0.0010300821293206305,
                    0.02938925220214064,
                    0.004482872554856523,
                    0.029101223171142104,
                    -0.02155157421097562,
                    -0.002487003088672563,
                    -0.025420417874346587,
                    -0.017411510293006747,
                    -0.01598572664077995,
                    -0.02157114486040078,
                    -0.010191677121264568,
                    0.014750780481141974,
                    0.03855532222317049,
                    0.030400049719426404,
                    0.05503973445748314,
                    0.032280368581709049,
                    0.057567849870757987,
                    0.04955776118781337,
                    0.012665033689159286,
                    0.022665094170465529,
                    0.0007796900010215842,
                    -0.032541030636269587,
                    -0.02910660940015244,
                    -0.04550896629135541,
                    -0.04534045761220267,
                    -0.07418028871624,
                    -0.017825566528634805,
                    -0.0015279123691779682,
                    0.004318494882611538,
                    0.03375114739056488,
                    0.04010824314463422,
                    0.002731293279343132,
                    -0.029551261128625218,
                    0.011879373200957036,
                    0.022432317843471825,
                    0.003470873751984354,
                    -0.021741409614873819,
                    0.00018530160959145234,
                    0.0021499699181735927,
                    -0.009756032621205002,
                    0.0005384698364313229,
                    0.01900258364850095,
                    0.05722970905396502,
                    0.023366973947398,
                    0.04449207636501205,
                    0.015073761142934435,
                    0.03506116678515579,
                    0.022470785635604168,
                    0.011949187949426232,
                    -0.024715100516735888,
                    -0.026360651761459836,
                    -0.05476416483250767,
                    -0.040368187747710147,
                    -0.032152011700364618,
                    -0.020545496767230388,
                    0.015224959996558074,
                    -0.004427842744577393,
                    0.010665358350747667,
                    0.0289445498732128,
                    0.007547856134387269,
                    0.008256366998035777,
                    -0.010244032257608302,
                    0.030361722536716423,
                    0.005059663336403943,
                    -0.021315963043969115,
                    -0.012855265253770107,
                    -0.005726996279386525,
                    -0.021553603524158628,
                    0.0007810982409618892,
                    0.01493151299095334,
                    0.042080996724238189,
                    0.021976119879969684,
                    0.01365049445288026,
                    0.06376705430177851,
                    0.05552903990423693,
                    0.009073126722762462,
                    -0.020969077763861287,
                    -0.015377557307068305,
                    0.0053887923229725509,
                    -0.030890285277535756,
                    -0.04601349784755578,
                    -0.028420866379385319,
                    -0.021647982987717398,
                    0.02009706527047813,
                    0.003605439945283611,
                    -0.010216231455471233,
                    0.01462633934080718,
                    -0.0034363996057325968,
                    -0.02068723401202894,
                    -0.029906956855325976,
                    -0.0017706415336446328,
                    0.0006263525297919567,
                    -0.010846749238090646,
                    -0.019669443304956709,
                    -0.00622227291819044,
                    -0.0042957179546120089,
                    0.00748059986169346,
                    -0.002230039103089783,
                    0.04019393780395804,
                    0.03681450121365632,
                    0.024071081267707758,
                    0.05656754396903231,
                    0.02462241717214955,
                    0.03278309976457121,
                    -0.027629543723739749,
                    -0.00510957636559349,
                    -0.018173940295583635,
                    -0.0027647027928517557,
                    -0.027581665788007138,
                    0.000516613428834608,
                    0.0008872117067709452,
                    0.030974418220871215,
                    0.03176214810210332,
                    -0.011972047756029553,
                    -0.010580034068875328,
                    0.027076564496422443,
                    -0.02878111008113805,
                    0.004741146175314824,
                    -0.008331189007546989,
                    -0.020802267943641627,
                    -0.017716770806831339,
                    -0.013597556201225648,
                    0.001084753169231933,
                    0.016947644475616583,
                    0.018158999886761366,
                    0.012129460535685385,
                    0.03989088193716564,
                    0.035383146663873449,
                    0.03912028694163816,
                    0.051952166298886767,
                    -0.011613860322078295,
                    -0.005894584625282056,
                    0.016808518250428667,
                    -0.028092385076789,
                    -0.0365913633038513,
                    -0.04226797697390133,
                    -0.05416347992005799,
                    -0.035674397228085758,
                    0.029298103554711149,
                    0.04919698003110962,
                    0.02172732633209492,
                    0.007496823400644059,
                    -0.015332073878234158,
                    0.012561792135738187,
                    -0.02280683427820288,
                    -0.0214106948794286,
                    -0.024082251986620789,
                    -0.005285233867347481,
                    0.0051164471286148948,
                    -0.022945426582815136,
                    0.009362744000876339,
                    0.0008816777860380249,
                    0.017700462543760677,
                    0.0368657981631831,
                    0.04485930264294055,
                    0.029669475748026046,
                    0.025500426229874634,
                    0.012307534442949178,
                    0.04722733915762684,
                    0.005041106309305551,
                    0.0021129411592753679,
                    0.011816673951615575,
                    -0.029399293336071318,
                    -0.03790765353573317,
                    -0.036768439641557338,
                    -0.03723230074796277,
                    0.00017316579708561832,
                    0.011271439091399752,
                    0.0021592275640524235,
                    -0.004370071881750338,
                    0.03674910747225019,
                    0.013344912711921575,
                    -0.03707444990126518,
                    -0.009859452000849815,
                    -0.009912209230488242,
                    -0.006714564062263126,
                    -0.018213229285120405,
                    -0.0018500970233792909,
                    0.0014795063750406247,
                    0.006025151807073133,
                    0.028033493290447375,
                    0.032634827222764169,
                    0.06101529513958343,
                    0.044561300129827566,
                    0.03498736234933603,
                    0.028875269770055117,
                    -0.015967708690003369,
                    0.013305252859276956,
                    0.0015331929544502288,
                    -0.010063256135554493,
                    -0.0026158978208795948,
                    -0.02615233762724038,
                    -0.05928264562765054,
                    -0.029044979752790569,
                    -0.03217132592655443,
                    -0.05692176410583443,
                    -0.030358641492877794,
                    0.0010619458288835466,
                    0.0013161870961240909,
                    -0.0014452549107737423,
                    -0.010897989784672298,
                    -0.023286432527643409,
                    -0.0213274952780771,
                    -0.02871402638279683,
                    -0.00816055989448797,
                    -0.008396393904589966,
                    0.009424328630366019,
                    0.006371886503888251,
                    0.042390431403362519,
                    0.033731064033176428,
                    0.04566057191539816,
                    0.003838700915308289,
                    -0.005205935133551055,
                    0.012112481041201209,
                    -0.02405134656676829,
                    -0.016260990829415946,
                    -0.003838152103775647,
                    -0.019657086250369637,
                    -0.03124259244607285,
                    -0.02809529753645205,
                    -0.02963325906252127,
                    -0.049739624886432628,
                    -0.06741507239640403,
                    -0.02917758223371173,
                    -0.029121031637096067,
                    -0.0032648236382127905,
                    -0.017001820627826439,
                    -0.0166836538989265,
                    -0.0038154129842158425,
                    -0.011977616885502371,
                    -0.01776255313552997,
                    -0.02155260015685229,
                    -0.012572751448759226,
                    -0.007514787566188711,
                    0.028917951231949694,
                    0.028495612061749173,
                    0.03682775298740758,
                    0.03523842574933075,
                    0.033752151683688457,
                    0.03382019834186171,
                    -0.0029687035810793415,
                    0.008113204929279123,
                    0.010981768273058756,
                    0.00832454910687525,
                    0.017235797671277667,
                    0.0055974956446453228,
                    -0.025164365727062655,
                    -0.04245357379820025,
                    -0.002957091019140639,
                    -0.028775833995025998,
                    -0.015378117756133608,
                    -0.019186808328777405,
                    0.001705113932706647,
                    0.004048200445285434,
                    -0.0022896763546935386,
                    -0.014045762627635536,
                    -0.011923495888521627,
                    -0.02850446125643451,
                    -0.015313826181792757,
                    -0.005771512885922532,
                    -0.006006336278935222,
                    -0.006069305691091868,
                    0.004390674957804,
                    0.004026829925224916,
                    -0.0019196153291132497,
                    0.020515847153360517,
                    0.024222649006568066,
                    0.028594274991125599,
                    0.013039934407896288,
                    0.009519191951571095,
                    -0.027957081835028927,
                    -0.007766489774989522,
                    0.011793190093269374,
                    -0.021338085364485276,
                    -0.02586312287942937,
                    -0.009475703896906905,
                    -0.02978856090815341,
                    -0.018125824240467333,
                    -0.043953207675616497,
                    -0.0038209229692335959,
                    -0.015240810352895174,
                    -0.0016674617286641476,
                    -0.00258599089557834,
                    -0.010491488392128565,
                    -0.009664397476560146,
                    -0.00690212464769766,
                    0.002121060157742049,
                    -0.0018824588348827466,
                    0.0065272818397043969,
                    -0.018464128745052729,
                    0.01605540335118802,
                    0.011223594968416117,
                    0.010774930108364884,
                    0.009307580167241805,
                    0.022894174275157838,
                    0.02319035490331531,
                    0.03763400114540274,
                    0.029814128667308955,
                    -0.0036181952309330669,
                    -0.004327627470765906,
                    -0.01662631331303101,
                    -0.02673466800945674,
                    -0.018138903580320017,
                    -0.03040901990023764,
                    -0.03890632351655892,
                    -0.02555183434644219,
                    -0.010752823756846476,
                    0.001210833908574804,
                    -0.020773021337052147,
                    -0.018000627368995115,
                    -0.011371978607106939,
                    -0.01624480012892105,
                    -0.013141685890895006,
                    -0.025264395434434204,
                    0.0031524063859909108,
                    -0.005634773173575036,
                    0.005693037150575412,
                    0.001749099917607993,
                    0.006207540095383236,
                    0.01258476176890226,
                    0.01579200928334479,
                    0.0017170525878877734,
                    0.01220738514933664,
                    0.05267909909249718,
                    0.02411280697174386,
                    0.013975515842347361,
                    0.006116529027982463,
                    -0.021607433505209069,
                    -0.013487570354007434,
                    -0.015568396036890699,
                    -0.007377294924837775,
                    -0.006235045580550468,
                    0.0028952411955046979,
                    -0.020264521415872769,
                    -0.0014073620544038906,
                    -0.003744069210774475,
                    -0.008457229749927346,
                    -0.005902375732974041,
                    -0.02408458414179996,
                    -0.02105942813066901,
                    -0.015535058777680383,
                    -0.012643890770949032,
                    -0.005952307170223842,
                    -0.010458624856621007,
                    -0.009562732660578574,
                    0.013579891655362539,
                    -0.004493889937685864,
                    -0.007257487062488082,
                    0.0016583195663304842,
                    0.00998140878307552,
                    0.017887729354122189,
                    0.035819239263885079,
                    0.02310674981492506,
                    0.014870915471185369,
                    -0.004322128596226077,
                    -0.00023646280408941753,
                    0.007574261449329017,
                    -0.00046286891192656135,
                    0.003952772029330519,
                    -0.01046324890706794,
                    -0.012465225544539143,
                    -0.004700576539492063,
                    0.0006552222822444186,
                    -0.002857835578260394,
                    0.010035109285452447,
                    -0.0104581094734741,
                    -0.00625425607185451,
                    -0.01924390935299938,
                    -0.01462744965933321,
                    -0.003045033799623773,
                    -0.012887093701141363,
                    -0.0091889217796239,
                    0.02053462190231312,
                    -0.005724344179255745,
                    0.001977519785365628,
                    0.017640722033280738,
                    0.0014328591519300362,
                    0.0038097418395386269,
                    0.013926662459509342,
                    0.04124533287963123,
                    0.0336404823833127,
                    0.010100686172392796,
                    -0.0035241493172316615,
                    0.02648650875459846,
                    0.011742141513636982,
                    0.02131688683123769,
                    0.010123182790183238,
                    0.003286825642669179,
                    0.008959879095531374,
                    0.0050492922396993878,
                    -0.025307863466641844,
                    -0.015898567483769833,
                    -0.002511886265818045,
                    -0.020619984859996937,
                    -0.006364030414488066,
                    -0.017110280535337708,
                    -0.007931799567399846,
                    -0.019032419096659989,
                    0.00779296963326765,
                    -0.006508351035316129,
                    -0.0012586040287786839,
                    -0.02005318993227856,
                    -0.005799140141771354,
                    0.008004046362391273,
                    -0.010632054198287309,
                    -0.013239435670276889,
                    -0.008187037595274052,
                    -0.0051865387384167449,
                    0.012982348588780659,
                    0.015997021590295387,
                    -0.02583783107385402,
                    0.007648908572407649,
                    0.0014387784592882984,
                    0.03730561231770086,
                    -0.013095333950045035,
                    -0.014373688669584871,
                    -0.008215947083422522,
                    -0.013167512919840483,
                    -0.03502741707262016,
                    -0.03254779120594967,
                    -0.031463069729244879,
                    -0.011218486785211226,
                    -0.013019278865285424,
                    -0.023423616622708797,
                    -0.007027478796636239,
                    0.005096072677319758,
                    0.005280231192268584,
                    -0.015443534082975067,
                    0.002101869309361499,
                    -0.0018071332050600992,
                    -0.014405929542881139,
                    -0.0018822875227904187,
                    -0.0002262303369359416,
                    -0.01825175586616831,
                    0.005329126421838983,
                    -0.022221896048587165,
                    -0.026881661937004924,
                    -0.016638092978094197,
                    -0.0010927334412240079,
                    -0.006525868556634667,
                    -0.013374157161526554,
                    0.007858248177448782,
                    -0.018031285779157356,
                    -0.016116711551389216,
                    -0.0020454911942200065,
                    -0.002393229270966886,
                    -0.008022254314980366,
                    0.0035824066932984858,
                    -0.0067198900290910659,
                    -0.0008943772931773294,
                    -0.003966269625436171,
                    0.00579232752810843,
                    0.011292555066485506,
                    -0.00006564904572234377,
                    -0.01165057300514741,
                    0.008282298053970088,
                    0.02307512106358369,
                    -0.012482722802566744,
                    -0.0024931514488403026,
                    0.001080472677480002,
                    -0.010140390020386753,
                    0.012767065878133227,
                    0.010572150574715146,
                    -0.010556008477625731,
                    -0.013266367574348032,
                    -0.016606780139443376,
                    -0.012879651860309084,
                    0.009480752341335648,
                    -0.005170403367824562,
                    0.004729394111203749,
                    -0.016563557268488198,
                    -0.01612198677620967,
                    -0.014340057870850253,
                    0.00013107929220982563,
                    -0.011681634866681295,
                    -0.0010037776088201224,
                    -0.0049993653411731669,
                    -0.005946242501701182,
                    0.008793741497743703,
                    -0.003337216670948721,
                    -0.016862760693391659,
                    -0.008256895186165035,
                    0.004594266133645975,
                    -0.014792410497231004,
                    0.005329079123072715,
                    0.003492889599965207,
                    -0.007127307691408168,
                    0.00861007320130542,
                    0.018416373256225788,
                    -0.00795723455998444,
                    0.010984741697635609,
                    0.004984559714838741,
                    -0.01734214053503652,
                    -0.004000640558134798,
                    -0.0004904723703483046,
                    0.0048441265847451319,
                    -0.006845423606243321,
                    0.0016006557543053794,
                    0.00015597707953714934,
                    -0.007037194943901256,
                    0.0030515118856166486,
                    -0.007215029508990723,
                    -0.006350092514100799,
                    -0.006570980568162048,
                    -0.01045012174807788,
                    -0.0030435523421324295,
                    -0.014751173888251148,
                    0.003845721043454721,
                    -0.009889061599423266,
                    -0.006637252051854426,
                    0.007656932294369424,
                    0.008116801962569467,
                    0.017997446614931614,
                    -0.0027241155692184894,
                    -0.004929690543698023,
                    -0.017545934975040108,
                    -0.008352948542871344,
                    0.005755861846064419,
                    -0.003137538947626496,
                    0.01568416673139507,
                    0.008133809460527464,
                    0.023327906395025877,
                    0.0018129859056840385,
                    0.012744026815489644,
                    -0.002688282838034977,
                    -0.006098697564605994,
                    0.01596144507750547,
                    0.007088751375113066,
                    0.022938974268560964,
                    -0.007791545806879421,
                    0.019605537986293339,
                    -0.0007331868047550741,
                    -0.008581092351725923,
                    -0.005642204654078076,
                    0.002278894030566372,
                    -0.00895202444185813,
                    -0.01646687666275724,
                    0.00008261563641550079,
                    -0.02800725347532564,
                    -0.018027165257660437,
                    0.012978261041908725,
                    -0.01228327674681813,
                    -0.004628733129371584,
                    -0.004122229730637962,
                    0.01251094515111556,
                    0.0020858077801057738,
                    0.009344298784065064,
                    -0.006862491945350099,
                    -0.005111590872744103,
                    0.00125121497898333,
                    0.02031109643505901,
                    0.0034051418462328114,
                    0.00345494757904463,
                    -0.00710333755830698,
                    0.006073543545273227,
                    0.005374874944974801,
                    0.007158532216789211,
                    0.007281123337866146,
                    0.02221110760014412,
                    0.017068757218414417,
                    -0.015013708380575622,
                    0.010837997776927568,
                    0.0066426325467178639,
                    -0.01651746499728398,
                    0.014801086040149844,
                    -0.011367219747747966,
                    -0.005702641908162356,
                    0.0035970507674300455,
                    -0.022745756475882767,
                    -0.0024312899441026796,
                    -0.0036328179110937917,
                    -0.0007395590884889242,
                    0.004804534918804273,
                    0.014988232637704383,
                    -0.002231090359919765,
                    0.0007814042307836336,
                    0.01118770929505158,
                    0.0043416747906949,
                    0.009091514626865045,
                    0.011673702929863354,
                    0.006679677629073405,
                    0.0012669445433545859,
                    -0.0026627678202578817,
                    0.01828760934527616,
                    -0.014509408186646618,
                    -0.0016156887736760568,
                    0.007373246315484832,
                    0.0005480491431361448,
                    -0.0029918738522180545,
                    0.0038879486034646287,
                    -0.008614850339435284,
                    -0.036030396635810858,
                    -0.009300664766907378,
                    -0.008293570923435974,
                    -0.02091409630285657,
                    -0.02382949273915724,
                    -0.008460894862058288,
                    0.00296668446646965,
                    0.00833972786375221,
                    0.001799201707858135,
                    -0.017799090471690639,
                    0.0016708531770280708,
                    0.02677803543943801,
                    -0.0004151719860127561,
                    0.026755322413187189,
                    0.0031170267971449107,
                    0.029504296683343823,
                    0.015311312949473988,
                    0.0038131093237538224,
                    0.006647827688986516,
                    0.012646127520468613,
                    0.024536756125745245,
                    0.02806604088464938,
                    0.006693046453373882,
                    -0.00875421654720028,
                    -0.00026358744604045134,
                    0.019678063455864725,
                    0.020544091243938486,
                    -0.00636480290251929,
                    -0.013169361676023922,
                    -0.029472505356403498,
                    -0.02022819253550507,
                    -0.013902201186675649,
                    -0.017410113015503264,
                    -0.01058136972369924,
                    -0.013270924632008833,
                    -0.0022555444466164675,
                    -0.008918060931968048,
                    0.008755071684763846,
                    0.009576588797499663,
                    0.016014494755663659,
                    0.02235312682516305,
                    0.009617238770175684,
                    0.02947566632802028,
                    -0.004058994882919002,
                    0.01275423785616489,
                    0.022108280322526227,
                    0.024888340707420507,
                    0.03189693005833906,
                    0.029800231454612588,
                    0.025091095777279677,
                    0.03200400311957536,
                    0.0062770354982791269,
                    0.008489989298177025,
                    0.004587274291959173,
                    -0.005517760846713342,
                    -0.00012301196193383865,
                    -0.020145784523432437,
                    0.0037586147841983969,
                    -0.005065358926475082,
                    -0.002608457194197907,
                    0.00987847680326132,
                    0.003941966197368893,
                    -0.009464921767153018,
                    -0.015252770798578808,
                    -0.0032674949998438816,
                    0.003196437735403458,
                    0.009332345517628856,
                    0.019293860736889835,
                    0.0010107531579177608,
                    0.014585706318790403,
                    0.020311162487214097,
                    0.029389214591413985,
                    0.023889031312803605,
                    0.018357088780474347,
                    0.016062453692139147,
                    0.015204965135034785,
                    0.03467746743468617,
                    0.023784974980399166,
                    0.026465689123145808,
                    0.01151677685126704,
                    0.02010503360267243,
                    0.013849997691771397,
                    0.02174698232299412,
                    0.012516938187684389,
                    0.012260454589470669,
                    0.0009699762714718059,
                    -0.014459779691080938,
                    0.0069260217394740588,
                    0.002154257504901201,
                    0.004056355695926872,
                    -0.005550532840745965,
                    -0.003750593503852588,
                    -0.022871031814438199,
                    0.01369101147846082,
                    -0.01455564564039737,
                    -0.009401003099719375,
                    0.006592333351403786,
                    0.0008349097671126266,
                    -0.0018808284500957099,
                    0.02518056394389035,
                    0.023244279929237348,
                    0.0010648563837557474,
                    0.0012258291574530462,
                    0.007012077695418188,
                    0.024181184698917305,
                    0.03437687776875308,
                    0.010683817090076232,
                    0.03951315183190834,
                    0.014751644187644979,
                    0.03140421020228178,
                    -0.0001027970652313135,
                    0.0023436475890890385,
                    0.010101415036484714,
                    0.001160478601476161,
                    0.030457738017506954,
                    0.019208977159313437,
                    -0.004012601767780707,
                    -0.0013564824770055577,
                    -0.003997261648395763,
                    -0.019597651226570428,
                    -0.010599669996723398,
                    -0.0008913203953516182,
                    0.019249846230414658,
                    0.0035214490131607715,
                    0.0038578402501826386,
                    0.01150748266379389,
                    0.0029656590432360107,
                    0.016817177381751443,
                    -0.02564843873396037,
                    -0.005465411806234199,
                    -0.01613078828580662,
                    -0.008338440417226709,
                    -0.01062097388195011,
                    -0.008499413039307806,
                    0.0020647646874665905,
                    0.03880274530697471,
                    0.014734328346009464,
                    0.023828419664298045,
                    -0.011152883434284859,
                    0.00931443954030995,
                    0.015318602132467698,
                    0.023367158918219109,
                    0.024313784614984344,
                    0.016067249039969,
                    0.0020328145721405664,
                    -0.0074834704439932,
                    -0.005932040344717136,
                    -0.01269088594593287,
                    0.002138860438877749,
                    -0.005578407473829131,
                    0.035483365274957139,
                    0.022679439764251857,
                    -0.0051728640520398009,
                    0.02076279775032841,
                    -0.001266433046831001,
                    0.00479010926394466,
                    0.043023769740022057,
                    -0.02531178283484855,
                    -0.010044632729037415,
                    -0.0048771550658361019,
                    -0.015120924954138478,
                    -0.005534787551067111,
                    -0.0019509050916610572,
                    -0.010872721741542458,
                    -0.01633281323919896,
                    0.009473683757683881,
                    0.010056593348375427,
                    -0.009995231735903845,
                    0.0020329309366249358,
                    0.014261373174310022,
                    0.00921894273123989,
                    0.0089874952319832,
                    -0.005454331002045292,
                    -0.011039027641263322,
                    -0.018507565242186637,
                    0.004632610959175724,
                    0.019868155513164146,
                    0.009243442223613688,
                    0.010618953095447729,
                    0.03433986034147166,
                    0.015204574473348757,
                    0.030968166739597397,
                    0.002728234569129981,
                    0.03367362875053683,
                    0.00010964221178090417,
                    0.047198089381440978,
                    0.0118778704163297,
                    -0.01906538846787396,
                    -0.01124299467768753,
                    -0.03449232516391194,
                    -0.01978974466869041,
                    -0.006934660849133037,
                    -0.013664171907111793,
                    -0.016464377029867574,
                    -0.039464257886870159,
                    -0.021519520219444055,
                    -0.008291663885632645,
                    -0.022857410484137549,
                    0.0019679027790071264,
                    -0.008344179536407605,
                    0.01959207527245219,
                    0.010135191671585569,
                    -0.015987265282039248,
                    0.014360954055473956,
                    0.023126951283277666,
                    0.01523187515723485,
                    -0.0038530315789632584,
                    0.009449629119181222,
                    0.006039836007724663,
                    0.0002281574855662853,
                    0.03083611034679296,
                    0.02845270922997676,
                    0.033964073290827189,
                    0.024094023514610143,
                    -0.0030538596064766637,
                    0.02217470194302286,
                    0.011176809429628079,
                    0.017214745606894276,
                    -0.017585763366322977,
                    -0.022728869167325268,
                    -0.005628245187553781,
                    -0.03059097332475848,
                    -0.038771533414710849,
                    -0.031595638670099197,
                    -0.03831992401103902,
                    -0.02314027636759297,
                    -0.02824302982497849,
                    0.01860935392993264,
                    0.013126811622354032,
                    -0.004666933861640195,
                    0.018848639460423375,
                    0.01078351624900255,
                    0.010122899315939446,
                    0.012436196135874317,
                    0.0006684856828880691,
                    0.030262322936055697,
                    0.022927010460809927,
                    0.0038298173668822779,
                    -0.009807224903364494,
                    -0.0085262477615241,
                    -0.017456578496907427,
                    0.0016383016041481682,
                    -0.01579963169519958,
                    -0.031146951972029228,
                    -0.004235424070946117,
                    0.011296642810951708,
                    0.001865892850741219,
                    -0.01381110047035304,
                    -0.03871909618432677,
                    -0.03911778169878183,
                    -0.05325108274944671,
                    -0.04941684447320415,
                    -0.04182782000612891,
                    0.002167120101555487,
                    -0.029445350965117264,
                    0.0008980094127135158,
                    0.012233255068134896,
                    0.009764715063912095,
                    0.005120257499543637,
                    -0.015987793324684746,
                    0.02590541527410506,
                    0.04015751455411158,
                    0.015782309987900889,
                    -0.004361720485382686,
                    0.0008532026511738073,
                    -0.0002974199856309249,
                    0.002224672774098849,
                    -0.0021478361280676619,
                    -0.03709092061780569,
                    -0.021828044436785648,
                    0.003059754673223119,
                    -0.020422215121402147,
                    -0.014387265127057956,
                    0.02765929810652575,
                    0.009593255722699108,
                    0.004225781322060363,
                    -0.018744804521272298,
                    0.011312135022772683,
                    -0.04379829716879233,
                    -0.028444345429610709,
                    -0.019324905347518536,
                    -0.010153296831405253,
                    -0.01588198904239935,
                    -0.03217855435528444,
                    0.015698756885484483,
                    0.012723909504466702,
                    0.007411026226441856,
                    -0.010018620345686307,
                    0.007519045200387708,
                    0.027627473244062417,
                    0.012661523714582002,
                    -0.009943945379080827,
                    -0.004126150856231354,
                    -0.0049156834900751689,
                    -0.010709080275585703,
                    -0.006762723793683717,
                    -0.025867390547684247,
                    -0.018828471689881614,
                    -0.01696529128801162,
                    -0.0033884410741725266,
                    0.006477047147481215,
                    -0.01526253965120842,
                    0.023947584013782724,
                    0.005657566589376659,
                    0.024363829596683555,
                    -0.007041929310340406,
                    0.0014181610613371015,
                    -0.007496147927396699,
                    -0.019743940093310286,
                    -0.02412797028186066,
                    -0.019693160196944689,
                    -0.003661887378807042,
                    0.0007239741140262551,
                    0.02905547248114558,
                    0.0014735879761556862,
                    0.01073175606520276,
                    0.004148436810831747,
                    0.025614830114928236,
                    0.002735652330973728,
                    0.009176067229626306,
                    -0.013144936705885374,
                    -0.031512196077762569,
                    -0.028576742554704255,
                    -0.023076280280820643,
                    -0.00588742552205897,
                    0.0013593730876541343,
                    0.006773019240656439,
                    -0.01235421193599563,
                    -0.011068067627560468,
                    -0.00016491348871087178,
                    0.003811550314403958,
                    0.0023211902405498149,
                    0.02429177481690191,
                    0.018246271009322878,
                    -0.014238000088827009,
                    -0.0015058208593206103,
                    0.020396428919843815,
                    -0.016441027006282185,
                    0.007121036380625999,
                    -0.0014018724643637968,
                    -0.00012724965010001116,
                    0.014723855298018887,
                    -0.001801357601752718,
                    -0.009516763206879302,
                    -0.013333919051719741,
                    0.01423790344026524,
                    0.03943664743487194,
                    0.01778021749262198,
                    -0.0004486387742076618,
                    -0.016852408050853388,
                    -0.03643905019009047,
                    -0.030166501481679765,
                    -0.01618305012742337,
                    -0.006172071242958736,
                    0.02095489087763623,
                    0.0019630139002038535,
                    -0.012723431568864637,
                    -0.005489630811118472,
                    0.005423883925416807,
                    0.0372277398890485,
                    0.033630812958934757,
                    0.028461437384763326,
                    0.03132223585072184,
                    0.00835613156603001,
                    -0.020332900342807219,
                    -0.013671704561419396,
                    -0.01296824894774553,
                    -0.005705291292234115,
                    0.027719942113501703,
                    0.00227771687570332,
                    -0.007766282521005229,
                    -0.008070874136205527,
                    -0.009175210931654519,
                    0.009177968547954604,
                    0.006269315560679093,
                    -0.017076783095107466,
                    -0.004947619102985975,
                    -0.004107355617569066,
                    -0.02041864594242067,
                    -0.020572845444951954,
                    -0.01394253037048548,
                    -0.002676744190946518,
                    -0.0038112025901649948,
                    -0.00885830875440249,
                    0.02179973933284167,
                    0.017617785036155056,
                    0.019986673192406883,
                    0.013463225277954334,
                    0.008145587855956488,
                    0.030414400962092429,
                    0.009439298105401,
                    0.024065563721847723,
                    0.012306383834010046,
                    0.007717992811868175,
                    0.015312241955602855,
                    -0.0071825485858251669,
                    0.013880753807492942,
                    -0.021345533944075107,
                    -0.012955603371021767,
                    0.0014421325909101022,
                    0.032768913857617907,
                    -0.00028801612516877854,
                    0.01596586777251992,
                    -0.0009633996496909916,
                    0.011146885107869887,
                    -0.019495852219385748,
                    -0.00009247499458373466,
                    -0.02642846429004955,
                    -0.016213330445031837,
                    -0.01886442041053855,
                    -0.003955102683124663,
                    -0.018456185559692467,
                    0.0077586011783685889,
                    0.004844696471437299,
                    0.008415263429058825,
                    -0.0234750247046699,
                    -0.003014485690589177,
                    -0.0005880480053653312,
                    0.0066125367019747769,
                    0.01010574153184481,
                    0.00017678997638538097,
                    -0.00973568211407755,
                    0.004843553124731958,
                    0.018305573330767236,
                    -0.003983594836987323,
                    0.008402587797355399,
                    -0.013287917880597232,
                    -0.00202624023557599,
                    0.025980522092577758,
                    0.011287225522591755,
                    0.017424949505642666,
                    0.015875495780531536,
                    0.008595752388707691,
                    -0.033935506447393907,
                    0.0016863733461697987,
                    -0.012139361311913224,
                    -0.013488681567172817,
                    -0.010418599125849256,
                    0.0071744696875616219,
                    0.004883943670814282,
                    0.009200924298348642,
                    0.01233599856580711,
                    0.009487849121551906,
                    -0.004385274256914332,
                    -0.014235558215507897,
                    0.02407749997342512,
                    0.012708866520830345,
                    -0.0010417936189106093,
                    0.016045174202266783,
                    0.0033450561500736086,
                    0.0043850308824775669,
                    0.009519783034716774,
                    0.01723312350135345,
                    0.0050203955057104708,
                    0.005035327435999008,
                    0.0011741991098207826,
                    0.020056780633648,
                    0.012836771587517835,
                    0.020997579538940028,
                    0.0020801942947628819,
                    -0.001429031076396201,
                    -0.004964161845445077,
                    -0.017605648021447465,
                    -0.0037506733729681686,
                    0.01544353895866212,
                    0.010809196678746145,
                    0.026822512776425314,
                    0.005208270469271121,
                    -0.008287631352752449,
                    -0.005340454405934939,
                    0.0076910165717795609,
                    0.0034807131428218425,
                    -0.007676509138623926,
                    0.000532055306568904,
                    0.015428178494424693,
                    -0.004581042005586301,
                    0.0027219059632885816,
                    0.0037136823849026566,
                    0.029516267051738756,
                    0.01991984313465907,
                    0.013713583695715208,
                    0.0066273116800507308,
                    -0.009484819963748765,
                    -0.002127827790582406,
                    0.018867923129770496,
                    0.003241794764476117,
                    -0.012295902821386722,
                    -0.011252264823219508,
                    0.01982361160301238,
                    0.018079953717416304,
                    -0.009820442259061925,
                    -0.011038546452199269,
                    0.014964362627593,
                    0.006306393185140029,
                    0.018891766502375244,
                    0.01226997347745771,
                    0.027930710146695297,
                    0.013570259090261612,
                    0.020185873713218107,
                    0.01268930133384782,
                    -0.017233046444769807,
                    0.023622144961772935,
                    0.004799361863449702,
                    -0.0062790110880546969,
                    0.004076129437447432,
                    0.014422899778429801,
                    0.005537838279667632,
                    0.002828752409072863,
                    0.019478128618491559,
                    -0.008658144786007018,
                    0.006201382562230076,
                    0.014670416485703974,
                    -0.014014058688657792,
                    0.013215551525556724,
                    0.009590156701555605,
                    -0.002702391458121737,
                    0.01138669763679666,
                    0.007610584029977816,
                    0.013113270643053314,
                    -0.0022549611378128865,
                    0.0023268431684547337,
                    0.01797754786274138,
                    0.015565213176952418,
                    0.025046409412601328,
                    0.02109336339718881,
                    0.010211703496696817,
                    0.007832923258446149,
                    0.017007001335016659,
                    0.009800834279706458,
                    0.013091392570172896,
                    -0.006909567540947722,
                    0.011620947860777734,
                    0.0016104286256284286,
                    -0.0038364045938987644,
                    0.010729039534068555,
                    -0.0013429339872293954,
                    0.012160460482516749,
                    -0.002784297137945145,
                    -0.0046045942375835999,
                    -0.009509749095892015,
                    0.003708388865123847,
                    0.008208436446865277,
                    -0.00005618771774221904,
                    0.0036161115471775656,
                    0.010099977305349742,
                    0.004199350449417091,
                    0.007295899222856672,
                    0.023430697477624195,
                    0.01060320773845032,
                    0.030066982961435237,
                    0.018203768106118024,
                    0.00589716736528309,
                    -0.008313992129416978,
                    0.003379641572173789,
                    0.020945877008125604,
                    0.002401453905235904,
                    -0.017874847496989127,
                    0.0189681131821661,
                    0.006072807757518811,
                    0.003676454902748664,
                    -0.01745773787418995,
                    0.009486426385175136,
                    -0.007103226704332772,
                    0.012977341320647887,
                    0.010217196354844555,
                    0.0008838959950378016,
                    0.021226318963779725,
                    0.006901441204950143,
                    0.007760662617591012,
                    -0.0009258360746531378,
                    -0.0013516460872119274,
                    0.02688447705188123,
                    -0.0036618229213411315,
                    -0.014527968753832672,
                    0.00902599555868192,
                    -0.02194112269950001,
                    -0.0205931328165397,
                    0.007477948143223883,
                    0.013169867769841784,
                    -0.007413678089200922,
                    0.0065478122327487478,
                    0.01422048730953536,
                    -0.003962816055018472,
                    0.011684200711701516,
                    0.022237483127274188,
                    -0.000698900045955587,
                    0.006798903884226495,
                    -0.010851626803650649,
                    -0.005837555966088379,
                    0.005138142774665265,
                    0.016044753218133355,
                    -0.0008778912612624925,
                    0.001644732289354968,
                    -0.021051076402683424,
                    0.014496579690092663,
                    -0.0148713510774938,
                    -0.008615153511193828,
                    -0.0006724249548708656,
                    0.006494889431547802,
                    -0.010834470604967268,
                    0.0035033977561696497,
                    0.004306108408361573,
                    -0.013364874938428555,
                    0.012349707626037427,
                    -0.007470287732250517,
                    0.019029370667929814,
                    0.006439310730811311,
                    0.0042293877147887549,
                    -0.0030725349470057956,
                    -0.01581112998504817,
                    0.010961216246857558,
                    -0.00011593210243247487,
                    -0.004819746193242754,
                    0.01965232348742248,
                    -0.014350172565441359,
                    -0.0007480602531238952,
                    0.0037328187699820225,
                    0.01431554741521033,
                    -0.006791036468301243,
                    -0.011385598032409062,
                    -0.0028152192060423798,
                    -0.0011505025384826967,
                    -0.01466461515223945,
                    0.006261020813518392,
                    0.0122111493622353,
                    -0.008679851175313426,
                    0.007987660670945528,
                    0.029475351458613808,
                    0.008239970023293478,
                    0.011280883035515818,
                    0.0009598259400421645,
                    -0.006722971896124065,
                    0.0003255090778588294,
                    -0.03888430373511726,
                    0.006033303139529727,
                    -0.002785253896093015,
                    -0.005997414523682506,
                    0.00007668248195585668,
                    0.0018816395430537384,
                    -0.011011820305495968,
                    0.005526027464797647,
                    0.0010162269496581836,
                    -0.011201483604833836,
                    0.018464632281182594,
                    0.01175660643155962,
                    0.0005862806001020487,
                    -0.01565710302198498,
                    -0.008812478667577098,
                    -0.008121820814006042,
                    0.012459077820403475,
                    0.00787783783922761,
                    0.003296796721589374,
                    0.011918548959188012,
                    0.010323204321884149,
                    0.00046028301801164233,
                    0.015086737876210272,
                    -0.006865178801749243,
                    -0.013982139461558109,
                    -0.011448693792549956,
                    0.009944743263959276,
                    0.009772848997090848,
                    -0.009302569513914824,
                    -0.003857926278838865,
                    -0.006163094542696659,
                    0.014790538869348722,
                    -0.008936713473330695,
                    -0.02490070555492019,
                    -0.03297760636054545,
                    -0.016977124570563778,
                    -0.012829123836473689,
                    0.019164774272414209,
                    -0.011600064409394996,
                    0.001140240701165819,
                    -0.02847482130807006,
                    0.016176749897379284,
                    -0.016447918189768354,
                    0.010949408143466976,
                    0.001450013475892703,
                    -0.028074666823112355,
                    0.002907178927276972,
                    0.0034170870935315,
                    -0.004789752116834202,
                    0.0031154470055425019,
                    -0.014820955156077717,
                    -0.010535601336607777,
                    -0.0032024451259825479,
                    -0.0196773704137126,
                    -0.003733076159304668,
                    -0.012267002133684296,
                    -0.012583220384929085,
                    -0.019719684589427468,
                    0.005697442245199893,
                    0.004598193128516057,
                    0.015773651642640917,
                    0.001922897374851464,
                    -0.005580412984356756,
                    0.0056306617093124689,
                    0.0052719091241460809,
                    0.012322545669223868,
                    0.005650440318747912,
                    -0.005567267142477163,
                    -0.009224001474703484,
                    -0.004135200813979548,
                    -0.000989025193292938,
                    -0.020030496163070869,
                    -0.009213069065821405,
                    -0.017031898814995125,
                    -0.007330541151623163,
                    -0.0018655772523864896,
                    -0.004117442372656641,
                    0.0009086403519514148,
                    0.0059373596429510189,
                    -0.023264796833611245,
                    0.002274312659844142,
                    0.006431707760005775,
                    -0.02127530555875249,
                    0.005755096759835261,
                    -0.0032756066592833619,
                    -0.0017085191889257227,
                    -0.00899709583220719,
                    -0.0005579326069420744,
                    0.006370539467243133,
                    0.01486682511425418,
                    0.002094564297612074,
                    -0.0032924760552565685,
                    -0.02127899039924125,
                    0.007745028135267256,
                    -0.015222862221501814,
                    -0.0026172458837987425,
                    -0.013390424366473635,
                    0.012917540296364109,
                    -0.0038313814309610158,
                    0.0055019378585858349,
                    0.01882172006201659,
                    0.002272636266807916,
                    -0.008611119263232924,
                    0.0019657456783443536,
                    -0.012490159514314366,
                    -0.004750521835362557,
                    0.0058020865830263929,
                    -0.00041230723924578437,
                    -0.017570623221647709,
                    -0.017709279908115256,
                    -0.007781207235794474,
                    -0.016704070881036486,
                    0.008370436778586125,
                    0.0069503428487484989,
                    -0.00325403693541019,
                    -0.021229718422067148,
                    0.006989071740190618,
                    -0.005477778033658619,
                    0.0028151659544196794,
                    -0.009631183528418965,
                    -0.012648805627601357,
                    0.01008197252026421,
                    -0.00700302257590303,
                    -0.00271340380453219,
                    -0.004417687959439326,
                    -0.017609278929591609,
                    0.004701963024118379,
                    0.0020361898258815355,
                    0.004793988582160841,
                    -0.0025899487896305988,
                    -0.013421553667988851,
                    -0.0010131472155942732,
                    0.016602068367205758,
                    -0.0051629064429214439,
                    -0.01234631693480939,
                    -0.006220785092985948,
                    -0.003135420522689113,
                    -0.010087527276056224,
                    -0.003347816408351962,
                    -0.013324851001300025,
                    0.010414468653485122,
                    0.001572186244358683,
                    0.0021231148598324404,
                    -0.028100550982900438,
                    -0.0117270320571797,
                    -0.016653479565537138,
                    0.00015825882807101924,
                    -0.015569422669820822,
                    -0.003445687488967973,
                    0.0004856744568474943,
                    0.00626681587722278,
                    0.015418600405380864,
                    -0.005780455354410265,
                    -0.003975478194388343,
                    -0.021272752771721087,
                    -0.006049259645755066,
                    0.0047755584326233759,
                    -0.010217581142169332,
                    -0.0050382765116645639,
                    -0.006324509957045763,
                    -0.0246220643803319,
                    0.004940787453132788,
                    0.010350770600700164,
                    0.01641784528888226,
                    -0.0017899137910182854,
                    0.004363479425987774,
                    -0.011492110959482077,
                    -0.00014568260202199368,
                    -0.007130960741332545,
                    0.003017106728789198,
                    -0.0034314523992343109,
                    -0.035884030791508297,
                    -0.03535399228095558,
                    -0.019819713638517187,
                    -0.0071591598043386499,
                    -0.000054871837639041784,
                    -0.017002871039751227,
                    -0.011647885171268932,
                    -0.002588444414206569,
                    -0.015347862952851127,
                    -0.009775340013492958,
                    0.003640258018181342,
                    -0.015649184135700695,
                    0.005230139148544697,
                    -0.008006841172647602,
                    -0.0008374066913186604,
                    -0.0116796234815048,
                    0.0037846043378605678,
                    -0.007851102285860156,
                    0.005888278356517773,
                    -0.002871379592221575,
                    -0.0025306495124539148,
                    -0.0029621620686600725,
                    -0.0021208706792910515,
                    -0.013033369642120343,
                    -0.01415947131019563,
                    -0.01526152949662846,
                    0.008564769054274524,
                    -0.009613248182875534,
                    -0.03562764828039615,
                    -0.021246139526281409,
                    -0.016428769578018748,
                    -0.029122066725817909,
                    -0.008091007831706009,
                    -0.027299574925626906,
                    0.003744895694043212,
                    -0.01727052432714677,
                    -0.0031915578339861379,
                    -0.002616670347485644,
                    -0.029177516375410215,
                    -0.0035591912262111487,
                    0.004860780310269539,
                    -0.005013748187067575,
                    -0.002842043365467744,
                    0.009660997491599124,
                    0.012478776988974202,
                    0.003157111873986607,
                    0.01839523157703239,
                    0.006375658432414765,
                    -0.024503744615948218,
                    0.02002811217832946,
                    0.0011866761511476093,
                    -0.008632262409250207,
                    -0.0032078333777290446,
                    0.018798136755808167,
                    -0.00406656329205435,
                    0.009729727266534554,
                    -0.010908616304989764,
                    -0.02224557029557587,
                    -0.020974384535702715,
                    -0.02375415584637805,
                    -0.029453168172422434,
                    -0.011978020944080077,
                    -0.030340677684559164,
                    -0.03386464884550493,
                    -0.017217026546134136,
                    -0.008450429304730688,
                    0.008046509694906057,
                    0.008161710547802888,
                    -0.0011783159556223737,
                    0.005044497302587984,
                    -0.03145512079523724,
                    0.0010672899295761046,
                    0.016517387550992369,
                    0.006888758446626278,
                    0.0030808290583976747,
                    -0.01164500474255849,
                    -0.015519752768046208,
                    -0.03133717156081957,
                    -0.025118543526298978,
                    -0.025758604969299126,
                    0.004373679062343578,
                    0.014362858997290292,
                    0.0037377650068462847,
                    -0.01500529671384873,
                    -0.013653915493137133,
                    -0.02149977537092996,
                    -0.0157570736541552,
                    -0.020060268400254448,
                    -0.029898614789893156,
                    0.0013581090933154803,
                    -0.011956952057705708,
                    -0.02729524570291786,
                    -0.03382361373719933,
                    -0.003566187906077569,
                    -0.010805466766955759,
                    0.0054105819195981179,
                    0.003336569982639579,
                    -0.0072398927087061058,
                    -0.01871664695711405,
                    -0.005224666448953372,
                    0.004259095917736485,
                    0.009828416173849011,
                    0.009475918251604212,
                    0.008653453649699406,
                    -0.00521139215259116,
                    -0.024891816931706155,
                    -0.03154326252696432,
                    -0.030172037228709478,
                    -0.014400973279242656,
                    0.007108547905182619,
                    0.007857483449227109,
                    -0.007141552697091636,
                    -0.002311034471827492,
                    -0.007529269716679735,
                    -0.0038201138725191508,
                    -0.0028280575504224536,
                    -0.009765297870149575,
                    -0.01953090535756214,
                    0.0027037325396818119,
                    -0.02041504180739863,
                    -0.018335733676798906,
                    -0.02227605549485794,
                    0.0040200177290120289,
                    0.007369867756629406,
                    0.00863390031721051,
                    0.0009612700232898288,
                    -0.01091993519090771,
                    0.004272649384294314,
                    0.01679310157879435,
                    0.001346298190435065,
                    -0.012551698685064016,
                    -0.0030870703048213635,
                    -0.0023307430267638926,
                    -0.02377198435695573,
                    -0.003918700543147569,
                    -0.019526075927712027,
                    -0.011307628644452849,
                    0.009925247546987202,
                    0.008897159160300887,
                    0.05856844316597558,
                    0.035460055396753207,
                    0.012037599567654337,
                    0.009251740704958468,
                    -0.030127654470093254,
                    0.0005811696606405729,
                    -0.010387468037915602,
                    0.011455923948536909,
                    -0.003312033920975352,
                    -0.008523231786611251,
                    0.0008757218711225805,
                    -0.000705399635757281,
                    -0.03261908506699611,
                    -0.03103294518793891,
                    -0.025094120665893079,
                    -0.03114389733616489,
                    -0.004288982014994671,
                    0.0013736903458181356,
                    0.015607867669742756,
                    0.012996111614236965,
                    -0.0002795283066158329,
                    -0.025547417507591469,
                    -0.0005570636063645869,
                    0.00016397646102905464,
                    0.007221363227843827,
                    0.03415673727690626,
                    0.032448118011096208,
                    0.025357776641955495,
                    0.03314434197445587,
                    0.01962638366739847,
                    0.010414091894907062,
                    -0.008787594154883293,
                    -0.0155950079353313,
                    0.020083804067869257,
                    0.011020728408254846,
                    0.006221181840750662,
                    0.00009983800694128404,
                    0.02109550037964312,
                    -0.00794602953463327,
                    -0.017484785423498667,
                    -0.021020872464474456,
                    -0.00651075639612164,
                    -0.01739308876538645,
                    -0.009761588074553027,
                    0.014193555550029805,
                    0.003287973659117193,
                    -0.008748694616351439,
                    0.021668601634691477,
                    0.009598595607246004,
                    0.015635901206916916,
                    -0.014467764415561279,
                    0.015602592003591024,
                    0.007946289514276353,
                    0.030895416410755596,
                    0.004973404190714556,
                    0.010042350175550255,
                    0.02963769079344057,
                    0.04086228937140628,
                    0.03679985160766102,
                    0.0220755393171111,
                    0.026599695158029819,
                    0.053051522346951079,
                    0.03285154913557892,
                    0.038425880417125479,
                    0.014963171334185285,
                    0.0009846856073674608,
                    -0.023852559252517566,
                    -0.0012567754451143182,
                    -0.023436806615172669,
                    0.019355954478560066,
                    -0.027147836501712265,
                    -0.025171824842141766,
                    -0.0034455885252672637,
                    -0.006838947780200851,
                    -0.002983211037605932,
                    0.0022000604407396539,
                    -0.011352961867823038,
                    0.00560229341712242,
                    0.010732631779722961,
                    0.007416341296187631,
                    0.010025724378241575,
                    0.04019942291433692,
                    0.023402767006139727,
                    0.012320079665177376,
                    0.022023035358633568,
                    0.02298162525314238,
                    0.06472970217636098,
                    0.03745694802216489,
                    0.03643207387807471,
                    0.026224640230924323,
                    0.025103890220509494,
                    -0.005289982557562594,
                    0.002344588858071812,
                    0.003065091305687848,
                    0.0014128629691456427,
                    0.011721731572875535,
                    -0.00973159010340308,
                    0.003647326285737948,
                    -0.007706799443553934,
                    0.0010684130219389258,
                    -0.000942138602010911,
                    -0.005799589165172562,
                    -0.004335669516823915,
                    0.013802500510949025,
                    0.004869542451672959,
                    0.016581886481433648,
                    0.0008055941973883513,
                    -0.007662502531520982,
                    0.004452859264415758,
                    -0.011888763646937794,
                    0.006168943212090914,
                    0.017220830176725527,
                    0.03753080033805969,
                    0.007196866693807165,
                    0.02089065932326791,
                    0.015056553594098375,
                    0.05258237946205878,
                    0.02043814448158958,
                    -0.007888572403159458,
                    0.015780972782987264,
                    0.0008179501852856803,
                    0.015852306672237937,
                    -0.001458597517243271,
                    0.014042718464264758,
                    -0.0009921783501538036,
                    0.009350523596457227,
                    0.011559701510129944,
                    -0.012100571182035657,
                    0.009893338763666212,
                    0.004783284330290343,
                    -0.02084556936773324,
                    0.004095617026988228,
                    -0.013998973857888786,
                    -0.0038205220673774846,
                    -0.006763842134201852,
                    -0.003863821712482535,
                    -0.018573008769695737,
                    -0.004954515932233681,
                    0.02984795088600744,
                    -0.0001128828291967353,
                    0.011684094458137106,
                    0.014062727674785178,
                    -0.010606938523266906,
                    0.02863080730879835,
                    0.017448804202558234,
                    0.016364678251408667,
                    0.010799410271410983,
                    0.0018486573422259437,
                    -0.0125856473432632,
                    0.016238612739913579,
                    -0.006272822930312187,
                    0.0061395663216296338,
                    -0.0006856686821992587,
                    0.0026147170660257566,
                    -0.0023191195632973665,
                    -0.023583706104324723,
                    0.006755147900077241,
                    0.018409646319212829,
                    0.006527825438892843,
                    -0.011324096876874756,
                    -0.01091917634921889,
                    0.02198516855731313,
                    0.003450413446370756,
                    -0.019854125619835264,
                    0.022402877533128274,
                    0.0001282430501542769,
                    0.004255898192807685,
                    -0.024531387358059634,
                    -0.03871763247032831,
                    -0.021156811075954249,
                    -0.027381787195491768,
                    0.00428739909702716,
                    -0.01077272199353075,
                    0.019172410947249795,
                    -0.0011817250004898589,
                    0.002381369347426334,
                    -0.003757985399856769,
                    0.0037859055820870627,
                    0.0024043460308995885,
                    -0.021382783073654267,
                    -0.014713106264033525,
                    0.006117158731657665,
                    -0.004400451072767074,
                    0.010413936754269214,
                    0.0016570383230806216,
                    0.006083840080435488,
                    0.002739581552897863,
                    -0.013134687519287309,
                    -0.012307626537825812,
                    -0.013970878644901165,
                    0.0012128684907471092,
                    0.0069663506101721559,
                    -0.021065861088761078,
                    -0.027089372770676673,
                    -0.036460622034661337,
                    -0.03968024135201014,
                    -0.04294348650659734,
                    -0.040780505942501727,
                    -0.037704742638831199,
                    -0.039412074520099347,
                    -0.03206409656061426,
                    -0.00549231694247616,
                    -0.008525092429545276,
                    0.0018102974535045326,
                    0.010092974939440313,
                    -0.02073661598994966,
                    -0.01227076614208361,
                    0.000789777129121667,
                    0.0008931058713219977,
                    -0.0041371217259133338,
                    0.006849059862291988,
                    -0.003857071570701369,
                    0.008420973304311748,
                    -0.013202555756428996,
                    -0.017954581422268146,
                    -0.007051136447935512,
                    -0.027844180772348564,
                    -0.007789365094772492,
                    -0.021058267598780286,
                    -0.0006962980129984546,
                    -0.03372725812271332,
                    -0.040584393037253769,
                    -0.038758872176112287,
                    -0.0390150780491688,
                    -0.03964512752535116,
                    -0.060795237556157979,
                    -0.026460868843176934,
                    -0.045088780976441759,
                    -0.03966820149518993,
                    -0.04100416085349396,
                    -0.010812697192267521,
                    -0.00021420094005285197,
                    -0.0074125781556548379,
                    -0.008981249623061395,
                    -0.0009791857332932853,
                    0.006383352281903081,
                    0.0005070198265243772,
                    -0.02841915960154877,
                    0.00033222159468750785,
                    -0.02632204240543696,
                    -0.020363450874371339,
                    0.0032748670887396628,
                    -0.009875543641425644,
                    0.0031829536296952376,
                    -0.02096343064552957,
                    -0.0009415028972079572,
                    -0.0385111685547721,
                    -0.031087808319106647,
                    -0.032707593733642129,
                    -0.031435989185388,
                    -0.02809661686691452,
                    -0.02269444016073391,
                    -0.030649128837145727,
                    -0.02611627452589761,
                    -0.0037922641045644706,
                    -0.028400089216165517,
                    -0.033686959115216189,
                    -0.039064672299241379,
                    -0.03882045046009349,
                    -0.016342978751187895,
                    -0.0018623195889830545,
                    0.022991400484889025,
                    0.018322834053185877,
                    0.012364189178121545,
                    0.0014539483617109174,
                    0.007711316567270728,
                    0.0035363877035393929,
                    -0.012643357242235287,
                    -0.005690475394593936,
                    -0.0198523303949805,
                    -0.008763888137073069,
                    -0.008552908432199014,
                    -0.015125352124386949,
                    -0.03781416632000177,
                    -0.020799760319054986,
                    -0.030942347237394396,
                    -0.02871356473476769,
                    -0.020712321335730506,
                    -0.014490841478258805,
                    -0.015062475178103129,
                    -0.03629513925711279,
                    -0.022564959991383007,
                    -0.015451454673482067,
                    -0.029754683363201655,
                    -0.0014330023199413422,
                    -0.03726413987844209,
                    -0.01730689776753769,
                    -0.030017317859432608,
                    0.0045771066159335268,
                    -0.003925800631224603,
                    -0.0016076430167332103,
                    0.010396554603128293,
                    0.00826604263400843,
                    0.013707114209064705,
                    -0.0026216276507584409,
                    -0.012174136570060564,
                    -0.002764262313992473,
                    -0.00503662232499373,
                    -0.014897132087093163,
                    -0.017495472460740608,
                    -0.014920127416327778,
                    -0.0003524220836251107,
                    -0.03114452827336086,
                    -0.0072227486776110338,
                    -0.04784022268752446,
                    -0.016941746434844,
                    -0.03358893266009689,
                    -0.03185936508674842,
                    -0.015042032175096934,
                    -0.017067412921497096,
                    -0.010134188650537543,
                    -0.022909032545569604,
                    -0.036007219624154377,
                    -0.00956204917191363,
                    -0.034267810306496098,
                    -0.014442341564936033,
                    -0.01719617385162858,
                    -0.021988693020570717,
                    -0.015980903145503799,
                    -0.0015997120541485202,
                    0.001962775809944553,
                    0.00010204152442412685,
                    0.007765364300948968,
                    0.007573103309904559,
                    0.009860031366601087,
                    -0.0048993447951188409,
                    -0.002552545109397237,
                    -0.0076042183002728159,
                    0.005595013671199083,
                    -0.011036854243799984,
                    -0.011660105290468102,
                    -0.015547418456382606,
                    -0.012758979407996229,
                    0.004870348070398174,
                    -0.01919993020814631,
                    -0.015046643770283907,
                    -0.021020537636438364,
                    -0.018478473474044474,
                    -0.009533897556457238,
                    -0.0010580244683414506,
                    -0.013512057641509873,
                    -0.009105030158181284,
                    -0.015391124899951455,
                    -0.009081485587033119,
                    -0.005549008564619746,
                    -0.015429064568399348,
                    -0.012769691309296932,
                    -0.0012020791124714244,
                    -0.010209011852358667,
                    -0.002521400065527174,
                    -0.003945546931867653,
                    -0.01668649397977518,
                    0.017898770448668306,
                    0.011049015348156178,
                    -0.0020845461436977926,
                    -0.007391986710404269,
                    -0.0050282037186748,
                    0.0021900287854122325,
                    -0.014447275769644396,
                    -0.0023531826548580847,
                    -0.00821423358582617,
                    -0.02099446974018572,
                    -0.0008700599230607327,
                    -0.025391400740157847,
                    -0.02012707338750909,
                    -0.028703235956110786,
                    -0.02097734056488843,
                    -0.028846569720945089,
                    -0.000487393329710453,
                    -0.025717224570233837,
                    -0.0028404978355514875,
                    0.0064714892926655159,
                    -0.005569232714665232,
                    -0.0011506500581105813,
                    0.004474259163343341,
                    -0.025193904025850444,
                    -0.0016574109937876646,
                    -0.0015938448691207237,
                    -0.0029600936728295089,
                    0.02216720200367638,
                    0.01135615689266284,
                    0.007095089619073046,
                    0.01031445884403588,
                    0.0009201471129063498,
                    0.006463998218803823,
                    -0.01850549609066686,
                    -0.017220448408459545,
                    -0.005301860245670631,
                    -0.029887680126379276,
                    -0.007119032994536926,
                    -0.00013662642062693627,
                    0.0035272086331105789,
                    -0.0003867108058736782,
                    -0.020567720163339185,
                    -0.02196895957326303,
                    -0.0055646767330195258,
                    0.0011702152301734154,
                    -0.024389659580152165,
                    -0.00869846770376559,
                    -0.018279655414047994,
                    0.0019453617107600867,
                    0.01355073784502616,
                    -0.008831435494721046,
                    -0.016607559688621877,
                    0.00004653943840884915,
                    -0.009701630492693398,
                    -0.004936927842983441,
                    -0.0029068500007663636,
                    -0.000484530848973105,
                    -0.01602685560371488,
                    -0.008737452807087156,
                    0.002477176387862298,
                    -0.013522380872026558,
                    0.001913859467734638,
                    0.010534032968550154,
                    -0.00009203110258403988,
                    -0.029604847211489903,
                    -0.0064884225300405689,
                    -0.012871601718911089,
                    0.003542116066565425,
                    -0.0027566401952421055,
                    -0.011179490729984202,
                    -0.0023842597141085556,
                    -0.01436596360899283,
                    -0.00910451985433038,
                    -0.031158233470384067,
                    -0.005915759977108292,
                    -0.028242435355886054,
                    0.013633539670933325,
                    -0.00827706639879096,
                    -0.0006597006900494325,
                    -0.004307716828466173,
                    0.004461000353635328,
                    -0.002285756699476879,
                    -0.006127000806148632,
                    0.004912865224734879,
                    0.010632249381847377,
                    -0.002051570066334176,
                    -0.005638706216646584,
                    0.0017103438761101938,
                    0.0050470273310009119,
                    -0.00919787084169029,
                    0.0003719356095746012,
                    0.003337641206365109,
                    0.003397445157399838,
                    -0.02132220260740633,
                    0.0002272073003419515,
                    0.009862974306369175,
                    0.0009940177929117273,
                    -0.00025882091754710437,
                    0.00011262863588833048,
                    -0.02268744876973654,
                    -0.004521150089586769,
                    0.012651122107118787,
                    -0.013178061388348126,
                    -0.006935971554331111,
                    -0.01422023615379505,
                    0.0046382795055115119,
                    -0.0009789582127783224,
